{
  "weights": [
    {
      "row": 10,
      "col": 2,
      "matrox": [
        [
          -0.21612057384181416,
          -0.6870795309886417
        ],
        [
          0.8557485657034287,
          -0.1318844160017565
        ],
        [
          -0.5682264065131881,
          0.7041374468069974
        ],
        [
          0.44137438117451566,
          -0.5639921821968699
        ],
        [
          -0.15974500380684598,
          -0.10069771169908392
        ],
        [
          -0.47327962892198006,
          -0.9047941599550211
        ],
        [
          0.13967773192036947,
          0.3841872633275236
        ],
        [
          -0.6062903230449943,
          0.5417385754405095
        ],
        [
          -0.5279009832324482,
          -0.8150043649671046
        ],
        [
          0.33713305080679357,
          -0.7116964827955954
        ]
      ]
    },
    {
      "row": 4,
      "col": 10,
      "matrox": [
        [
          -0.77144846207637,
          -0.7796362575250582,
          -0.8796253072878684,
          -0.3335382285803492,
          0.6506594507301955,
          -0.268496070377394,
          0.6462434197946076,
          0.46942429529620444,
          -0.5588978912265214,
          -0.6696856784112746
        ],
        [
          0.13505184973788964,
          -0.4656636720333154,
          0.7585654744926567,
          0.7583437603196841,
          0.27744093867266306,
          -0.7192777679417417,
          0.16447760665416755,
          0.3501885181233253,
          0.48756731275318277,
          0.22036756441015815
        ],
        [
          0.07494775558882738,
          0.5247263522208394,
          -0.9979967372624827,
          -0.19867285529429424,
          0.15769671182743084,
          0.3707326332035934,
          0.8589982601441681,
          0.6241725807897103,
          -0.654447303923809,
          0.08388743678850386
        ],
        [
          -0.10315803783254296,
          0.21582970380893007,
          0.42807874048874694,
          0.2543586621969207,
          0.7565889270716646,
          -0.30021235924617695,
          0.6016567836269573,
          -0.8183733190582583,
          0.10939868188947832,
          0.775818484548934
        ]
      ]
    }
  ],
  "biases": [
    {
      "row": 10,
      "col": 1,
      "matrox": [
        [
          -0.3585299708110776
        ],
        [
          -0.7519648830259436
        ],
        [
          -0.9137939748587827
        ],
        [
          0.5395535991094129
        ],
        [
          -0.962800790692917
        ],
        [
          0.38274942448845506
        ],
        [
          0.3429045973863576
        ],
        [
          0.4865447630826081
        ],
        [
          0.057644027066070525
        ],
        [
          0.31334771330926925
        ]
      ]
    },
    {
      "row": 4,
      "col": 1,
      "matrox": [
        [
          -0.6122607897477557
        ],
        [
          0.12097217773771085
        ],
        [
          0.7150500764688781
        ],
        [
          0.015328605705306586
        ]
      ]
    }
  ],
  "Activations": [
    "sigmoid",
    "Relu"
  ]
}
